<?xml version="1.0" encoding="UTF-8"?>
<!--
  Licensed to the Apache Software Foundation (ASF) under one
  or more contributor license agreements.  See the NOTICE file
  distributed with this work for additional information
  regarding copyright ownership.  The ASF licenses this file
  to you under the Apache License, Version 2.0 (the
  "License"); you may not use this file except in compliance
  with the License.  You may obtain a copy of the License at

    http://www.apache.org/licenses/LICENSE-2.0

  Unless required by applicable law or agreed to in writing,
  software distributed under the License is distributed on an
  "AS IS" BASIS, WITHOUT WARRANTIES OR CONDITIONS OF ANY
  KIND, either express or implied.  See the License for the
  specific language governing permissions and limitations
  under the License.
  -->

<PMML version="4.4" xmlns="http://www.dmg.org/PMML-4_4">
  <Header copyright="KNIME">
    <Application name="KNIME" version="2.8.0"/>
  </Header>
  <DataDictionary>
    <DataField name="temperature" dataType="double" optype="continuous" />
    <DataField name="humidity" dataType="double" optype="continuous" />
    <DataField name="decision" dataType="string" optype="categorical">
      <Value value="sunglasses" />
      <Value value="umbrella" />
      <Value value="nothing" />
    </DataField>
    <DataField name="Species" optype="categorical" dataType="string">
      <Value value="setosa"/>
      <Value value="versicolor"/>
      <Value value="virginica"/>
    </DataField>
    <DataField name="Sepal.Length" optype="continuous" dataType="double"/>
    <DataField name="Sepal.Width" optype="continuous" dataType="double"/>
    <DataField name="Petal.Length" optype="continuous" dataType="double"/>
    <DataField name="Petal.Width" optype="continuous" dataType="double"/>
    <DataField name="FinalResult" dataType="string" optype="categorical" />
  </DataDictionary>
  <MiningModel functionName="classification">
    <MiningSchema>
      <MiningField name="temperature"  usageType="active" />
      <MiningField name="humidity"  usageType="active" />
      <MiningField name="Sepal.Length" usageType="active" invalidValueTreatment="returnInvalid"/>
      <MiningField name="Sepal.Width" usageType="active" invalidValueTreatment="returnInvalid"/>
      <MiningField name="Petal.Length" usageType="active" invalidValueTreatment="returnInvalid"/>
      <MiningField name="Petal.Width" usageType="active" invalidValueTreatment="returnInvalid"/>
      <MiningField name="FinalResult" usageType="predicted" invalidValueTreatment="returnInvalid"/>
    </MiningSchema>
    <Segmentation multipleModelMethod="majorityVote">
      <Segment>
        <True/>
        <TreeModel modelName="SampleMineTreeModel" functionName="classification">
          <MiningSchema>
            <MiningField name="temperature"  usageType="active" />
            <MiningField name="humidity"  usageType="active" />
            <MiningField name="decision" usageType="predicted" />
          </MiningSchema>
          <Node score="nothing" id="1">
            <True />
            <Node score="sunglasses" id="2">
              <CompoundPredicate booleanOperator="and">
                <SimplePredicate field="temperature" operator="greaterThan" value="25" />
                <SimplePredicate field="humidity" operator="lessOrEqual" value="20" />
              </CompoundPredicate>
            </Node>
            <Node score="umbrella" id="3">
              <SimplePredicate field="humidity" operator="greaterThan" value="50" />
            </Node>
            <Node score="nothing" id="4">
              <True />
            </Node>
          </Node>
        </TreeModel>
      </Segment>
      <Segment>
        <True/>
        <TreeModel modelName="IrisTreeModel" functionName="classification" algorithmName="rpart" splitCharacteristic="binarySplit" missingValueStrategy="defaultChild" noTrueChildStrategy="returnLastPrediction">
          <MiningSchema>
            <MiningField name="Species" usageType="predicted" invalidValueTreatment="returnInvalid"/>
            <MiningField name="Sepal.Length" usageType="active" invalidValueTreatment="returnInvalid"/>
            <MiningField name="Sepal.Width" usageType="active" invalidValueTreatment="returnInvalid"/>
            <MiningField name="Petal.Length" usageType="active" invalidValueTreatment="returnInvalid"/>
            <MiningField name="Petal.Width" usageType="active" invalidValueTreatment="returnInvalid"/>
          </MiningSchema>
          <Output>
            <OutputField name="Predicted_Species" optype="categorical" dataType="string" feature="predictedValue"/>
            <OutputField name="Probability_setosa" optype="continuous" dataType="double" feature="probability" value="setosa"/>
            <OutputField name="Probability_versicolor" optype="continuous" dataType="double" feature="probability" value="versicolor"/>
            <OutputField name="Probability_virginica" optype="continuous" dataType="double" feature="probability" value="virginica"/>
          </Output>
          <Node id="1" score="setosa" recordCount="150" defaultChild="3">
            <True/>
            <ScoreDistribution value="setosa" recordCount="50" confidence="0.333333333333333"/>
            <ScoreDistribution value="versicolor" recordCount="50" confidence="0.333333333333333"/>
            <ScoreDistribution value="virginica" recordCount="50" confidence="0.333333333333333"/>
            <Node id="2" score="setosa" recordCount="50">
              <CompoundPredicate booleanOperator="surrogate">
                <SimplePredicate field="Petal.Length" operator="lessThan" value="2.45"/>
                <SimplePredicate field="Petal.Width" operator="lessThan" value="0.8"/>
                <SimplePredicate field="Sepal.Length" operator="lessThan" value="5.45"/>
                <SimplePredicate field="Sepal.Width" operator="greaterOrEqual" value="3.35"/>
              </CompoundPredicate>
              <ScoreDistribution value="setosa" recordCount="50" confidence="1"/>
              <ScoreDistribution value="versicolor" recordCount="0" confidence="0"/>
              <ScoreDistribution value="virginica" recordCount="0" confidence="0"/>
            </Node>
            <Node id="3" score="versicolor" recordCount="100" defaultChild="7">
              <CompoundPredicate booleanOperator="surrogate">
                <SimplePredicate field="Petal.Length" operator="greaterOrEqual" value="2.45"/>
                <SimplePredicate field="Petal.Width" operator="greaterOrEqual" value="0.8"/>
                <SimplePredicate field="Sepal.Length" operator="greaterOrEqual" value="5.45"/>
                <SimplePredicate field="Sepal.Width" operator="lessThan" value="3.35"/>
              </CompoundPredicate>
              <ScoreDistribution value="setosa" recordCount="0" confidence="0"/>
              <ScoreDistribution value="versicolor" recordCount="50" confidence="0.5"/>
              <ScoreDistribution value="virginica" recordCount="50" confidence="0.5"/>
              <Node id="6" score="versicolor" recordCount="54">
                <CompoundPredicate booleanOperator="surrogate">
                  <SimplePredicate field="Petal.Width" operator="lessThan" value="1.75"/>
                  <SimplePredicate field="Petal.Length" operator="lessThan" value="4.75"/>
                  <SimplePredicate field="Sepal.Length" operator="lessThan" value="6.15"/>
                  <SimplePredicate field="Sepal.Width" operator="lessThan" value="2.95"/>
                </CompoundPredicate>
                <ScoreDistribution value="setosa" recordCount="0" confidence="0"/>
                <ScoreDistribution value="versicolor" recordCount="49" confidence="0.907407407407407"/>
                <ScoreDistribution value="virginica" recordCount="5" confidence="0.0925925925925926"/>
              </Node>
              <Node id="7" score="virginica" recordCount="46">
                <CompoundPredicate booleanOperator="surrogate">
                  <SimplePredicate field="Petal.Width" operator="greaterOrEqual" value="1.75"/>
                  <SimplePredicate field="Petal.Length" operator="greaterOrEqual" value="4.75"/>
                  <SimplePredicate field="Sepal.Length" operator="greaterOrEqual" value="6.15"/>
                  <SimplePredicate field="Sepal.Width" operator="greaterOrEqual" value="2.95"/>
                </CompoundPredicate>
                <ScoreDistribution value="setosa" recordCount="0" confidence="0"/>
                <ScoreDistribution value="versicolor" recordCount="1" confidence="0.0217391304347826"/>
                <ScoreDistribution value="virginica" recordCount="45" confidence="0.978260869565217"/>
              </Node>
            </Node>
          </Node>
        </TreeModel>
      </Segment>
    </Segmentation>
  </MiningModel>
</PMML>