<!--
  ~ Copyright 2011 JBoss Inc
  ~
  ~   Licensed under the Apache License, Version 2.0 (the "License");
  ~   you may not use this file except in compliance with the License.
  ~   You may obtain a copy of the License at
  ~
  ~         http://www.apache.org/licenses/LICENSE-2.0
  ~
  ~   Unless required by applicable law or agreed to in writing, software
  ~   distributed under the License is distributed on an "AS IS" BASIS,
  ~   WITHOUT WARRANTIES OR CONDITIONS OF ANY KIND, either express or implied.
  ~   See the License for the specific language governing permissions and
  ~   limitations under the License.
  -->

<PMML version="4.0" xsi:schemaLocation="http://www.dmg.org/PMML-4_0 http://www.dmg.org/v4-0/pmml-4-0.xsd" xmlns="http://www.dmg.org/PMML-4_0" xmlns:xsi="http://www.w3.org/2001/XMLSchema-instance">
  <Header description="Test example" copyright="none">
  </Header>

  <DataDictionary numberOfFields="6">
    <DataField dataType="string" name="gender" optype="categorical" displayName="Gender of Person">
      <Value value="female"/>
      <Value value="male"/>
    </DataField>
    <DataField dataType="string" name="no of claims" optype="categorical" displayName="Number of Claims">
      <Value value="0"/>
      <Value value="1"/>
      <Value value="> 1"/>
    </DataField>
    <DataField dataType="integer" name="scrambled" optype="ordinal" displayName="Meaningless out-of-order Field">
      <Value value="4"/>
      <Value value="3"/>
      <Value value="7"/>
      <Value value="2"/>
      <Value value="9"/>
    </DataField>
    <DataField dataType="string" name="domicile" optype="categorical" displayName="Type of Domicile">
      <Value value="urban"/>
      <Value value="rural"/>
    </DataField>
    <DataField dataType="double" name="age of car" optype="continuous" displayName="Age of Car">
      <Interval closure="closedClosed" leftMargin="0" rightMargin="20" />
    </DataField>
    <DataField dataType="double" isCyclic="1" name="amount of claims" optype="continuous" displayName="Amount of Claims"/>
  </DataDictionary>

  <TransformationDictionary>
    <DerivedField dataType="double" name="IsMale" optype="categorical">
      <NormDiscrete field="gender" method="indicator" value="male"/>
    </DerivedField>
    <DerivedField dataType="double" name="IsFemale" optype="categorical">
      <NormDiscrete field="gender" method="indicator" value="female"/>
    </DerivedField>
  </TransformationDictionary>


  <NeuralNetwork activationFunction="identity" algorithmName="neuralNetwork" functionName="regression" modelName="Mixed">
    <MiningSchema>
      <MiningField name="gender"/>
      <MiningField name="no of claims"/>
      <MiningField name="scrambled"/>
      <MiningField name="domicile"/>
      <MiningField name="age of car" />
      <MiningField name="amount of claims" usageType="predicted"/>
    </MiningSchema>
    <Output>
      <OutputField name="Out_Claims" targetField="amount of claims"/>
    </Output>

    <NeuralInputs>
      <NeuralInput id="0">
        <DerivedField optype="continuous" dataType="double">
          <FieldRef field="IsMale"/>
        </DerivedField>
      </NeuralInput>
      <NeuralInput id="1">
        <DerivedField dataType="double" optype="continuous">
          <FieldRef field="IsFemale"/>
        </DerivedField>
      </NeuralInput>

      <NeuralInput id="2">
        <DerivedField dataType="double" optype="continuous">
          <NormDiscrete field="no of claims" value="0"/>
        </DerivedField>
      </NeuralInput>
      <NeuralInput id="3">
        <DerivedField dataType="double" optype="continuous">
          <NormDiscrete field="no of claims" value="1"/>
        </DerivedField>
      </NeuralInput>
      <NeuralInput id="4">
        <DerivedField dataType="double" optype="continuous">
          <NormDiscrete field="no of claims" value="> 1"/>
        </DerivedField>
      </NeuralInput>

      <NeuralInput id="5">
        <DerivedField dataType="integer" optype="continuous">
          <FieldRef field="scrambled" />
        </DerivedField>
      </NeuralInput>

      <NeuralInput id="6">
        <DerivedField dataType="double" optype="continuous">
          <NormDiscrete field="domicile" method="indicator" value="urban"/>
        </DerivedField>
      </NeuralInput>
      <NeuralInput id="7">
        <DerivedField dataType="double" optype="continuous">
          <NormDiscrete field="domicile" method="indicator" value="rural"/>
        </DerivedField>
      </NeuralInput>


      <NeuralInput id="8">
        <DerivedField dataType="double" optype="continuous">
          <FieldRef field="age of car"/>
        </DerivedField>
      </NeuralInput>

    </NeuralInputs>


    <NeuralLayer>
      <Neuron bias="-1" id="9">
        <Con from="0" weight="1"/>
        <Con from="1" weight="2"/>
        <Con from="2" weight="3"/>
        <Con from="3" weight="4"/>
        <Con from="4" weight="5"/>
        <Con from="5" weight="6"/>
        <Con from="6" weight="7"/>
        <Con from="7" weight="8"/>
        <Con from="8" weight="10"/>
      </Neuron>
    </NeuralLayer>
    <NeuralLayer>
      <Neuron bias="1.0" id="10">
        <Con from="9" weight="1.0"/>
      </Neuron>
    </NeuralLayer>
    <NeuralOutputs>
      <NeuralOutput outputNeuron="10">
        <DerivedField dataType="double" optype="continuous">
          <FieldRef field="amount of claims"/>
        </DerivedField>
      </NeuralOutput>
    </NeuralOutputs>
  </NeuralNetwork>
</PMML>