
<PMML xmlns="http://www.dmg.org/PMML-4_2" version="4.2">
  <Header copyright="www.dmg.org" description="A very small binary tree model to show structure."/>
  <DataDictionary numberOfFields="5">
    <DataField name="temperature" optype="continuous" dataType="double"/>
    <DataField name="humidity" optype="continuous" dataType="double"/>
    <DataField name="windy" optype="categorical" dataType="string">
      <Value value="true"/>
      <Value value="false"/>
    </DataField>
    <DataField name="outlook" optype="categorical" dataType="string">
      <Value value="sunny"/>
      <Value value="overcast"/>
      <Value value="rain"/>
    </DataField>
    <DataField name="whatIdo" optype="categorical" dataType="string">
      <Value value="will play"/>
      <Value value="may play"/>
      <Value value="no play"/>
    </DataField>
  </DataDictionary>
  <TreeModel modelName="golfing" functionName="classification">
    <MiningSchema>
      <MiningField name="temperature"/>
      <MiningField name="humidity"/>
      <MiningField name="windy"/>
      <MiningField name="outlook"/>
      <MiningField name="whatIdo" usageType="target"/>
    </MiningSchema>
    <Node score="will play" id="A">
      <True/>
      <ScoreDistribution value="will play" recordCount="50" confidence="0.333333333333333"/>
      <ScoreDistribution value="may play" recordCount="50" confidence="0.333333333333333"/>
      <ScoreDistribution value="no play" recordCount="50" confidence="0.333333333333333"/>
      <Node score="32" id="A_A">
        <SimplePredicate field="outlook" operator="equal" value="sunny"/>
        <ScoreDistribution value="will play" recordCount="50" confidence="0.333333333333333"/>
        <ScoreDistribution value="may play" recordCount="50" confidence="0.333333333333333"/>
        <ScoreDistribution value="no play" recordCount="50" confidence="0.333333333333333"/>
        <Node score="will play" id="A_A_A">
          <CompoundPredicate booleanOperator="and">
            <SimplePredicate field="temperature" operator="lessThan" value="90"/>
            <SimplePredicate field="temperature" operator="greaterThan" value="50"/>
          </CompoundPredicate>
          <ScoreDistribution value="will play" recordCount="50" confidence="0.333333333333333"/>
          <ScoreDistribution value="may play" recordCount="50" confidence="0.333333333333333"/>
          <ScoreDistribution value="no play" recordCount="50" confidence="0.333333333333333"/>
          <Node score="will play"  id="A_A_A_A">
            <SimplePredicate field="humidity" operator="lessThan" value="80"/>
            <ScoreDistribution value="will play" recordCount="50" confidence="0.333333333333333"/>
            <ScoreDistribution value="may play" recordCount="50" confidence="0.333333333333333"/>
            <ScoreDistribution value="no play" recordCount="50" confidence="0.333333333333333"/>
          </Node>
          <Node score="no play" id="A_A_A_B">
            <SimplePredicate field="humidity" operator="greaterOrEqual" value="80"/>
            <ScoreDistribution value="will play" recordCount="50" confidence="0.333333333333333"/>
            <ScoreDistribution value="may play" recordCount="50" confidence="0.333333333333333"/>
            <ScoreDistribution value="no play" recordCount="50" confidence="0.333333333333333"/>
          </Node>
        </Node>
        <Node score="no play" id="A_A_B">
          <SimpleSetPredicate field="occupation" booleanOperator="isIn">
            <Array n="2" type="string">SKYDIVER ASTRONAUT</Array>
          </SimpleSetPredicate>
          <ScoreDistribution value="will play" recordCount="50" confidence="0.333333333333333"/>
          <ScoreDistribution value="may play" recordCount="50" confidence="0.333333333333333"/>
          <ScoreDistribution value="no play" recordCount="50" confidence="0.333333333333333"/>
        </Node>
      </Node>
      <Node score="may play" id="A_B">
        <CompoundPredicate booleanOperator="or">
          <SimplePredicate field="outlook" operator="equal" value="overcast"/>
          <SimplePredicate field="outlook" operator="equal" value="rain"/>
        </CompoundPredicate>
        <ScoreDistribution value="will play" recordCount="50" confidence="0.333333333333333"/>
        <ScoreDistribution value="may play" recordCount="50" confidence="0.333333333333333"/>
        <ScoreDistribution value="no play" recordCount="50" confidence="0.333333333333333"/>
        <Node score="may play" id="A_B_A">
          <CompoundPredicate booleanOperator="and">
            <SimplePredicate field="temperature" operator="greaterThan" value="60"/>
            <SimplePredicate field="temperature" operator="lessThan" value="100"/>
            <SimplePredicate field="outlook" operator="equal" value="overcast"/>
            <SimplePredicate field="humidity" operator="lessThan" value="70"/>
            <SimplePredicate field="windy" operator="equal" value="false"/>
          </CompoundPredicate>
          <ScoreDistribution value="will play" recordCount="50" confidence="0.333333333333333"/>
          <ScoreDistribution value="may play" recordCount="50" confidence="0.333333333333333"/>
          <ScoreDistribution value="no play" recordCount="50" confidence="0.333333333333333"/>
        </Node>
        <Node score="no play" id="A_B_B">
          <CompoundPredicate booleanOperator="and">
            <SimplePredicate field="outlook" operator="equal" value="rain"/>
            <SimplePredicate field="humidity" operator="lessThan" value="70"/>
          </CompoundPredicate>
          <ScoreDistribution value="will play" recordCount="50" confidence="0.333333333333333"/>
          <ScoreDistribution value="may play" recordCount="50" confidence="0.333333333333333"/>
          <ScoreDistribution value="no play" recordCount="50" confidence="0.333333333333333"/>
        </Node>
      </Node>
    </Node>
  </TreeModel>
</PMML>