<PMML version="4.2" xsi:schemaLocation="http://www.dmg.org/PMML-4_2 http://www.dmg.org/v4-1/pmml-4-2.xsd" xmlns:xsi="http://www.w3.org/2001/XMLSchema-instance"
   xmlns="http://www.dmg.org/PMML-4_2">
   <Header>
      <Application name="Drools-PMML" version="7.0.0-SNAPSHOT" />
   </Header>
   <DataDictionary numberOfFields="3">
      <DataField name="overallScore" optype="continuous" dataType="double" />
      <DataField name="grade" optype="categorical" dataType="string">
         <Value value="A" />
         <Value value="B" />
         <Value value="C" />
         <Value value="D" />
         <Value value="F" />
      </DataField>
      <DataField name="qualificationLevel" optype="categorical" dataType="string">
         <Value value="Unqualified" />
         <Value value="Barely" />
         <Value value="Well" />
         <Value value="Over" />
      </DataField>
   </DataDictionary>
   <TreeModel functionName="classification" modelName="HandwrittenTree">
      <MiningSchema>
         <MiningField name="overallScore" usageType="active" />
         <MiningField name="grade" usageType="active" />
         <MiningField name="qualificationLevel" usageType="predicted" />
      </MiningSchema>
      <Output>
         <OutputField name="qualLevel" targetField="qualificationLevel" />
      </Output>
      <Node score="Well">
         <True />
         <Node score="Well">
            <CompoundPredicate booleanOperator="and">
               <SimplePredicate field="overallScore" operator="greaterThan" value="65.0" />
               <SimplePredicate field="overallScore" operator="lessOrEqual" value="85.0" />
            </CompoundPredicate>
            <Node score="Well">
               <SimpleSetPredicate booleanOperator="isIn" field="grade">
                  <Array type="string">A B</Array>
               </SimpleSetPredicate>
            </Node>
            <Node score="Barely">
               <SimplePredicate field="grade" operator="equal" value="C" />
            </Node>
         </Node>
         <Node score="Unqualified">
            <SimplePredicate field="overallScore" operator="lessOrEqual" value="65.0" />
            <Node score="Unqualified">
               <CompoundPredicate booleanOperator="or">
                  <SimplePredicate field="overallScore" operator="lessThan" value="50.0"/>
                  <SimpleSetPredicate booleanOperator="isIn" field="grade">
                     <Array type="string">B C D F</Array>
                  </SimpleSetPredicate>
               </CompoundPredicate>
            </Node>
            <Node score="Barely">
               <SimplePredicate field="grade" operator="equal" value="A"/>
            </Node>
         </Node>
         <Node score="Over">
            <SimplePredicate field="overallScore" operator="greaterOrEqual" value="85.0"/>
            <Node score="Over">
               <SimpleSetPredicate booleanOperator="isIn" field="grade">
                  <Array type="string">A B</Array>
               </SimpleSetPredicate>
            </Node>
            <Node score="Well">
               <SimpleSetPredicate booleanOperator="isNotIn" field="grade">
                  <Array type="string">A B</Array>
               </SimpleSetPredicate>
            </Node>
         </Node>
         </Node>
   </TreeModel>
</PMML>