<PMML version="4.2" xsi:schemaLocation="http://www.dmg.org/PMML-4_2 http://www.dmg.org/v4-1/pmml-4-2.xsd" xmlns:xsi="http://www.w3.org/2001/XMLSchema-instance"
   xmlns="http://www.dmg.org/PMML-4_2">
   <Header>
      <Application name="Drools-PMML" version="7.0.0-SNAPSHOT" />
   </Header>
   <DataDictionary numberOfFields="15">
      <DataField name="age" optype="continuous" dataType="double" />
      <DataField name="occupation" optype="categorical" dataType="string">
         <Value value="SKYDIVER" />
         <Value value="ASTRONAUT" />
         <Value value="PROGRAMMER" />
         <Value value="TEACHER" />
         <Value value="INSTRUCTOR" />
      </DataField>
      <DataField name="residenceState" optype="categorical" dataType="string">
         <Value value="AP" />
         <Value value="KN" />
         <Value value="TN" />
      </DataField>
      <DataField name="validLicense" optype="categorical" dataType="boolean" />
      <DataField name="overallScore" optype="continuous" dataType="double" />
      <DataField dataType="double" name="fld1" optype="continuous">
         <Value property="missing" value="-1.0" />
      </DataField>
      <DataField dataType="double" name="fld2" optype="continuous">
         <Value property="missing" value="-1.0" />
      </DataField>
      <DataField dataType="string" name="fld3" optype="categorical">
         <Value value="true" />
         <Value value="false" />
      </DataField>
      <DataField dataType="string" name="fld4" optype="categorical">
         <Value value="optA" />
         <Value value="optB" />
         <Value value="optC" />
      </DataField>
      <DataField dataType="string" name="fld5" optype="categorical">
         <Value value="tgtX" />
         <Value value="tgtY" />
         <Value value="tgtZ" />
      </DataField>
      <DataField dataType="string" name="fld6" optype="categorical">
         <Value value="optA" />
         <Value value="optB" />
         <Value value="optC" />
         <Value property="missing" value="miss" />
      </DataField>
      <DataField dataType="double" name="fld1r" optype="continuous" />
      <DataField dataType="double" name="fld2r" optype="continuous" />
      <DataField dataType="string" name="fld3r" optype="categorical">
         <Value value="x" />
         <Value value="y" />
      </DataField>
      <DataField dataType="string" name="fld4r" optype="categorical">
         <Value value="klassA" />
         <Value value="klassB" />
         <Value value="klassC" />
         <Value value="klassD" />
      </DataField>
   </DataDictionary>
   <MiningModel modelName="SampleSelectAllMine" functionName="classification">
      <MiningSchema>
         <MiningField name="age" />
         <MiningField name="occupation" />
         <MiningField name="residenceState" />
         <MiningField name="validLicense" />
         <MiningField name="overallScore" />
         <MiningField name="fld1" />
         <MiningField name="fld2" />
         <MiningField name="fld3" />
         <MiningField name="fld4" />
         <MiningField name="fld6" />
         <MiningField name="fld5" usageType="predicted" />
         <MiningField name="fld1r" />
         <MiningField name="fld2r" />
         <MiningField name="fld3r" />
         <MiningField name="fld4r" usageType="predicted" />
      </MiningSchema>
      <Segmentation multipleModelMethod="selectAll">
         <Segment id="1">
            <True />
            <Scorecard modelName="Sample Score 1" useReasonCodes="true" isScorable="true" functionName="regression"
               baselineScore="0.0" initialScore="0.345">
               <MiningSchema>
                  <MiningField name="age" usageType="active" invalidValueTreatment="asMissing" />
                  <MiningField name="occupation" usageType="active" invalidValueTreatment="asMissing" />
                  <MiningField name="residenceState" usageType="active" invalidValueTreatment="asMissing" />
                  <MiningField name="validLicense" usageType="active" invalidValueTreatment="asMissing" />
                  <MiningField name="overallScore" usageType="predicted" />
               </MiningSchema>
               <Output>
                  <OutputField name="calculatedScore" displayName="Final Score" dataType="double" feature="predictedValue"
                     targetField="overallScore" />
               </Output>
               <Characteristics>
                  <Characteristic name="AgeScore" baselineScore="0.0" reasonCode="ABZ">
                     <Extension name="cellRef" value="$B$8" />
                     <Attribute partialScore="10.0">
                        <Extension name="cellRef" value="$C$10" />
                        <SimplePredicate field="age" operator="lessOrEqual" value="5" />
                     </Attribute>
                     <Attribute partialScore="30.0" reasonCode="CX1">
                        <Extension name="cellRef" value="$C$11" />
                        <CompoundPredicate booleanOperator="and">
                           <SimplePredicate field="age" operator="greaterOrEqual" value="5" />
                           <SimplePredicate field="age" operator="lessThan" value="12" />
                        </CompoundPredicate>
                     </Attribute>
                     <Attribute partialScore="40.0" reasonCode="CX2">
                        <Extension name="cellRef" value="$C$12" />
                        <CompoundPredicate booleanOperator="and">
                           <SimplePredicate field="age" operator="greaterOrEqual" value="13" />
                           <SimplePredicate field="age" operator="lessThan" value="44" />
                        </CompoundPredicate>
                     </Attribute>
                     <Attribute partialScore="25.0">
                        <Extension name="cellRef" value="$C$13" />
                        <SimplePredicate field="age" operator="greaterOrEqual" value="45" />
                     </Attribute>
                  </Characteristic>
                  <Characteristic name="OccupationScore" baselineScore="0.0">
                     <Extension name="cellRef" value="$B$16" />
                     <Attribute partialScore="-10.0" reasonCode="CX2">
                        <Extension name="description" value="skydiving is a risky occupation" />
                        <Extension name="cellRef" value="$C$18" />
                        <SimpleSetPredicate field="occupation" booleanOperator="isIn">
                           <Array n="2" type="string">SKYDIVER ASTRONAUT</Array>
                        </SimpleSetPredicate>
                     </Attribute>
                     <Attribute partialScore="10.0">
                        <Extension name="cellRef" value="$C$19" />
                        <SimpleSetPredicate field="occupation" booleanOperator="isIn">
                           <Array n="2" type="string">TEACHER INSTRUCTOR</Array>
                        </SimpleSetPredicate>
                     </Attribute>
                     <Attribute partialScore="5.0">
                        <Extension name="cellRef" value="$C$20" />
                        <SimplePredicate field="occupation" operator="equal" value="PROGRAMMER" />
                     </Attribute>
                  </Characteristic>
                  <Characteristic name="ResidenceStateScore" baselineScore="0.0" reasonCode="RES">
                     <Extension name="cellRef" value="$B$22" />
                     <Attribute partialScore="-10.0">
                        <Extension name="cellRef" value="$C$24" />
                        <SimplePredicate field="residenceState" operator="equal" value="AP" />
                     </Attribute>
                     <Attribute partialScore="10.0">
                        <Extension name="cellRef" value="$C$25" />
                        <SimplePredicate field="residenceState" operator="equal" value="KN" />
                     </Attribute>
                     <Attribute partialScore="5.0">
                        <Extension name="cellRef" value="$C$26" />
                        <SimplePredicate field="residenceState" operator="equal" value="TN" />
                     </Attribute>
                  </Characteristic>
                  <Characteristic name="ValidLicenseScore" baselineScore="0.0">
                     <Extension name="cellRef" value="$B$28" />
                     <Attribute partialScore="1.0" reasonCode="LX00">
                        <Extension name="cellRef" value="$C$30" />
                        <SimplePredicate field="validLicense" operator="equal" value="true" />
                     </Attribute>
                     <Attribute partialScore="-1.0" reasonCode="LX00">
                        <Extension name="cellRef" value="$C$31" />
                        <SimplePredicate field="validLicense" operator="equal" value="false" />
                     </Attribute>
                  </Characteristic>
               </Characteristics>
            </Scorecard>
         </Segment>
         <Segment id="2">
            <True />
            <Scorecard modelName="Sample Score 2" useReasonCodes="true" isScorable="true" functionName="regression"
               baselineScore="0.0" initialScore="0.345">
               <MiningSchema>
                  <MiningField name="age" usageType="active" invalidValueTreatment="asMissing" />
                  <MiningField name="occupation" usageType="active" invalidValueTreatment="asMissing" />
                  <MiningField name="residenceState" usageType="active" invalidValueTreatment="asMissing" />
                  <MiningField name="validLicense" usageType="active" invalidValueTreatment="asMissing" />
                  <MiningField name="overallScore" usageType="predicted" />
               </MiningSchema>
               <Output>
                  <OutputField name="calculatedScore" displayName="Final Score" dataType="double" feature="predictedValue"
                     targetField="overallScore" />
               </Output>
               <Characteristics>
                  <Characteristic name="AgeScore" baselineScore="0.0" reasonCode="CDY">
                     <Extension name="cellRef" value="$B$8" />
                     <Attribute partialScore="10.0">
                        <Extension name="cellRef" value="$C$10" />
                        <SimplePredicate field="age" operator="lessOrEqual" value="5" />
                     </Attribute>
                     <Attribute partialScore="30.0" reasonCode="DX1">
                        <Extension name="cellRef" value="$C$11" />
                        <CompoundPredicate booleanOperator="and">
                           <SimplePredicate field="age" operator="greaterOrEqual" value="5" />
                           <SimplePredicate field="age" operator="lessThan" value="12" />
                        </CompoundPredicate>
                     </Attribute>
                     <Attribute partialScore="40.0" reasonCode="DX2">
                        <Extension name="cellRef" value="$C$12" />
                        <CompoundPredicate booleanOperator="and">
                           <SimplePredicate field="age" operator="greaterOrEqual" value="13" />
                           <SimplePredicate field="age" operator="lessThan" value="44" />
                        </CompoundPredicate>
                     </Attribute>
                     <Attribute partialScore="25.0">
                        <Extension name="cellRef" value="$C$13" />
                        <SimplePredicate field="age" operator="greaterOrEqual" value="45" />
                     </Attribute>
                  </Characteristic>
                  <Characteristic name="OccupationScore" baselineScore="0.0">
                     <Extension name="cellRef" value="$B$16" />
                     <Attribute partialScore="-10.0" reasonCode="DX2">
                        <Extension name="description" value="skydiving is a risky occupation" />
                        <Extension name="cellRef" value="$C$18" />
                        <SimpleSetPredicate field="occupation" booleanOperator="isIn">
                           <Array n="2" type="string">SKYDIVER ASTRONAUT</Array>
                        </SimpleSetPredicate>
                     </Attribute>
                     <Attribute partialScore="10.0">
                        <Extension name="cellRef" value="$C$19" />
                        <SimpleSetPredicate field="occupation" booleanOperator="isIn">
                           <Array n="2" type="string">TEACHER INSTRUCTOR</Array>
                        </SimpleSetPredicate>
                     </Attribute>
                     <Attribute partialScore="5.0">
                        <Extension name="cellRef" value="$C$20" />
                        <SimplePredicate field="occupation" operator="equal" value="PROGRAMMER" />
                     </Attribute>
                  </Characteristic>
                  <Characteristic name="ResidenceStateScore" baselineScore="0.0" reasonCode="RST">
                     <Extension name="cellRef" value="$B$22" />
                     <Attribute partialScore="-10.0">
                        <Extension name="cellRef" value="$C$24" />
                        <SimplePredicate field="residenceState" operator="equal" value="KN" />
                     </Attribute>
                     <Attribute partialScore="10.0">
                        <Extension name="cellRef" value="$C$25" />
                        <SimplePredicate field="residenceState" operator="equal" value="AP" />
                     </Attribute>
                     <Attribute partialScore="5.0">
                        <Extension name="cellRef" value="$C$26" />
                        <SimplePredicate field="residenceState" operator="equal" value="TN" />
                     </Attribute>
                  </Characteristic>
                  <Characteristic name="ValidLicenseScore" baselineScore="0.0">
                     <Extension name="cellRef" value="$B$28" />
                     <Attribute partialScore="1.0" reasonCode="LC00">
                        <Extension name="cellRef" value="$C$30" />
                        <SimplePredicate field="validLicense" operator="equal" value="true" />
                     </Attribute>
                     <Attribute partialScore="-1.0" reasonCode="LC00">
                        <Extension name="cellRef" value="$C$31" />
                        <SimplePredicate field="validLicense" operator="equal" value="false" />
                     </Attribute>
                  </Characteristic>
               </Characteristics>
            </Scorecard>
         </Segment>
         <Segment id="3">
            <False/>
            <RegressionModel algorithmName="linearRegression" functionName="classification" modelName="LinReg"
               normalizationMethod="softmax" targetFieldName="fld4">
               <MiningSchema>
                  <MiningField name="fld1r" />
                  <MiningField name="fld2r" />
                  <MiningField name="fld3r" />
                  <MiningField name="fld4r" usageType="predicted" />
               </MiningSchema>
               <Output>
                  <OutputField name="RegOut" feature="predictedValue" targetField="fld4r" />
                  <OutputField name="RegProb" feature="probability" targetField="fld4r" />
                  <OutputField name="RegProbA" feature="probability" targetField="fld4r" value="catA" />
               </Output>
               <RegressionTable intercept="0.1" targetCategory="catA">
                  <NumericPredictor coefficient="1" exponent="1" name="fld1r" />
                  <NumericPredictor coefficient="1" exponent="1" name="fld2r" />
                  <CategoricalPredictor coefficient="1" name="fld3r" value="0" />
                  <CategoricalPredictor coefficient="1" name="fld3r" value="1" />
               </RegressionTable>
               <RegressionTable intercept="0.2" targetCategory="catB">
                  <NumericPredictor coefficient="2" exponent="1" name="fld1r" />
                  <NumericPredictor coefficient="2" exponent="1" name="fld2r" />
                  <CategoricalPredictor coefficient="2" name="fld3r" value="0" />
                  <CategoricalPredictor coefficient="2" name="fld3r" value="1" />
               </RegressionTable>
               <RegressionTable intercept="0.3" targetCategory="catC">
                  <NumericPredictor coefficient="3" exponent="1" name="fld1r" />
                  <NumericPredictor coefficient="3" exponent="1" name="fld2r" />
                  <CategoricalPredictor coefficient="3" name="fld3r" value="0" />
                  <CategoricalPredictor coefficient="3" name="fld3r" value="1" />
               </RegressionTable>
               <RegressionTable intercept="5.0" targetCategory="catD" />
            </RegressionModel>
         </Segment>
      </Segmentation>
   </MiningModel>
</PMML>