<?xml version="1.0" encoding="UTF-8"?>
<PMML version="4.2" xsi:schemaLocation="http://www.dmg.org/PMML-4_2 http://www.dmg.org/v4-1/pmml-4-2.xsd" xmlns:xsi="http://www.w3.org/2001/XMLSchema-instance" xmlns="http://www.dmg.org/PMML-4_2">
  <Header description="generated by the drools-scorecards module">
  </Header>

  <DataDictionary numberOfFields="3">
    <DataField name="param1" optype="continuous" dataType="integer"/>
    <DataField name="param2" optype="categorical" dataType="string">
      <Value value="optA"/>
      <Value value="optB"/>
      <Value value="optC"/>
    </DataField>
    <DataField name="overallScore" optype="continuous" dataType="double" />
  </DataDictionary>

  <Scorecard modelName="SimpleSetScorecard" useReasonCodes="true" isScorable="true" functionName="regression" baselineScore="25" initialScore="3">
    <MiningSchema>
      <MiningField name="param1" usageType="active" invalidValueTreatment="asMissing"></MiningField>
      <MiningField name="param2" usageType="active" invalidValueTreatment="asMissing"></MiningField>
      <MiningField name="overallScore" usageType="target"/>
    </MiningSchema>

    <Characteristics>
      <Characteristic name="ch1" baselineScore="5">
        <Attribute partialScore="20">
          <SimpleSetPredicate field="param1" booleanOperator="isIn">
            <Array n="2" type="int">1 5</Array>
          </SimpleSetPredicate>
        </Attribute>
        <Attribute partialScore="100">
          <SimpleSetPredicate field="param1" booleanOperator="isNotIn">
            <Array n="2" type="int">1 5</Array>
          </SimpleSetPredicate>
        </Attribute>
      </Characteristic>

      <Characteristic name="ch2">
        <Attribute partialScore="10">
          <SimpleSetPredicate field="param2" booleanOperator="isIn">
            <Array n="2" type="string">optA optB</Array>
          </SimpleSetPredicate>
        </Attribute>
        <Attribute partialScore="20">
          <SimpleSetPredicate field="param2" booleanOperator="isNotIn">
            <Array n="2" type="string">optA optB</Array>
          </SimpleSetPredicate>
        </Attribute>
      </Characteristic>
    </Characteristics>
  </Scorecard>
</PMML>
