<!--
  Licensed to the Apache Software Foundation (ASF) under one
  or more contributor license agreements.  See the NOTICE file
  distributed with this work for additional information
  regarding copyright ownership.  The ASF licenses this file
  to you under the Apache License, Version 2.0 (the
  "License"); you may not use this file except in compliance
  with the License.  You may obtain a copy of the License at

    http://www.apache.org/licenses/LICENSE-2.0

  Unless required by applicable law or agreed to in writing,
  software distributed under the License is distributed on an
  "AS IS" BASIS, WITHOUT WARRANTIES OR CONDITIONS OF ANY
  KIND, either express or implied.  See the License for the
  specific language governing permissions and limitations
  under the License.
  -->

<PMML xmlns="http://www.dmg.org/PMML-4_2" version="4.2">
    <Header/>
    <DataDictionary numberOfFields="2">
        <DataField name="Dimension1" optype="continuous" dataType="double"/>
        <DataField name="Dimension2" optype="continuous" dataType="double"/>
    </DataDictionary>
    <ClusteringModel modelName="multipleClusterSameClassModel" functionName="clustering"
        modelClass="centerBased" numberOfClusters="5">
        <MiningSchema>
            <MiningField name="Dimension1" invalidValueTreatment="returnInvalid"/>
            <MiningField name="Dimension2" invalidValueTreatment="returnInvalid"/>
        </MiningSchema>
        <Output>
            <OutputField name="predictedValue" feature="predictedValue" dataType="string" optype="categorical"/>
            <OutputField name="predictedDisplayValue" feature="predictedDisplayValue" dataType="string" optype="categorical"/>
            <OutputField name="predictedAffinity" feature="affinity" dataType="double"/>
            <OutputField name="predictedClusterAffinity" feature="clusterAffinity" dataType="double"/>
        </Output>
        <ComparisonMeasure kind="distance">
            <squaredEuclidean/>
        </ComparisonMeasure>
        <ClusteringField field="Dimension1" compareFunction="absDiff"/>
        <ClusteringField field="Dimension2" compareFunction="absDiff"/>
        <Cluster name="classA" size="52">
            <Array n="2" type="real">0 0</Array>
        </Cluster>
        <Cluster name="classB" size="48">
            <Array n="2" type="real">1 1</Array>
        </Cluster>
        <Cluster name="classA" size="12">
            <Array n="2" type="real">-1 -1</Array>
        </Cluster>
        <Cluster name="classB" size="24">
            <Array n="2" type="real">5 5</Array>
        </Cluster>
        <Cluster name="classC" size="17">
            <Array n="2" type="real">-3 5</Array>
        </Cluster>
    </ClusteringModel>
</PMML>
