<PMML xmlns="http://www.dmg.org/PMML-4_4" version="4.4">
  <Header copyright="DMG.org"/>
  <DataDictionary numberOfFields="4">
    <DataField name="age" optype="continuous" dataType="double"/>
    <DataField name="salary" optype="continuous" dataType="double"/>
    <DataField name="car_location" optype="categorical" dataType="string">
      <Value value="carpark"/>
      <Value value="street"/>
    </DataField>
    <DataField name="number_of_claims" optype="continuous" dataType="integer"/>
  </DataDictionary>
  <RegressionModel functionName="regression" algorithmName="linearRegression" targetFieldName="number_of_claims">
    <MiningSchema>
      <MiningField name="age"/>
      <MiningField name="salary"/>
      <MiningField name="car_location" usageType="target"/> <!-- <- wrong - used for test - should be overrided by Target -->
      <MiningField name="number_of_claims"/>
    </MiningSchema>
    <RegressionTable intercept="132.37">
    </RegressionTable>
  </RegressionModel>
  <TreeModel functionName="classification">
    <MiningSchema>
      <MiningField name="age"/>
      <MiningField name="salary"/>
      <MiningField name="car_location" usageType="target"/> <!-- <- wrong - used for test - should be overrided by Target -->
      <MiningField name="number_of_claims"/>
    </MiningSchema>
    <Node score="will play">
      <True/>
    </Node>
  </TreeModel>
  <RegressionModel functionName="regression" algorithmName="linearRegression" targetFieldName="number_of_claims">
    <MiningSchema>
      <MiningField name="age"/>
      <MiningField name="salary"/>
      <MiningField name="car_location" usageType="target"/> <!-- <- wrong - used for test - should be overrided by Target -->
      <MiningField name="number_of_claims"/>
    </MiningSchema>
    <RegressionTable intercept="766.37">
    </RegressionTable>
  </RegressionModel>
</PMML>