<PMML xmlns:xsi="http://www.w3.org/2001/XMLSchema-instance" version="4.2" xsi:schemaLocation="http://www.dmg.org/PMML-4_2 http://www.dmg.org/v4-2-1/pmml-4-2.xsd" xmlns="http://www.dmg.org/PMML-4_2">
  <Header/>
  <DataDictionary numberOfFields="4">
    <DataField name="result" optype="categorical" dataType="string">
      <Value value="classA"/>
      <Value value="classB"/>
      <Value value="classC"/>
    </DataField>
    <DataField name="input1" optype="continuous" dataType="double"/>
    <DataField name="input2" optype="continuous" dataType="double"/>
    <DataField name="input3" optype="continuous" dataType="double"/>
  </DataDictionary>
  <TreeModel modelName="SimpleSetPredicateTreeModel" functionName="classification" noTrueChildStrategy="returnLastPrediction">
    <MiningSchema>
      <MiningField name="result" usageType="predicted" invalidValueTreatment="returnInvalid"/>
      <MiningField name="input1" usageType="active" invalidValueTreatment="returnInvalid"/>
      <MiningField name="input2" usageType="active" invalidValueTreatment="returnInvalid"/>
      <MiningField name="input3" usageType="active" invalidValueTreatment="returnInvalid"/>
    </MiningSchema>
    <Output>
      <OutputField name="Predicted_result" optype="categorical" dataType="string" feature="predictedValue"/>
    </Output>
    <Node id="1" score="classA">
      <True/>
      <Node id="2" score="classB">
        <SimpleSetPredicate field="input1" booleanOperator="isIn">
          <Array type="real" n="4">-5 0.5 1 10</Array>
        </SimpleSetPredicate>
      </Node>
      <Node id="3" score="classC">
        <SimpleSetPredicate field="input2" booleanOperator="isNotIn">
          <Array type="real" n="2">3 8.5</Array>
        </SimpleSetPredicate>
      </Node>
    </Node>
  </TreeModel>
</PMML>
