<?xml version="1.0" encoding="UTF-8" standalone="yes"?>
<!--
  Licensed to the Apache Software Foundation (ASF) under one
  or more contributor license agreements.  See the NOTICE file
  distributed with this work for additional information
  regarding copyright ownership.  The ASF licenses this file
  to you under the Apache License, Version 2.0 (the
  "License"); you may not use this file except in compliance
  with the License.  You may obtain a copy of the License at

    http://www.apache.org/licenses/LICENSE-2.0

  Unless required by applicable law or agreed to in writing,
  software distributed under the License is distributed on an
  "AS IS" BASIS, WITHOUT WARRANTIES OR CONDITIONS OF ANY
  KIND, either express or implied.  See the License for the
  specific language governing permissions and limitations
  under the License.
  -->

<PMML xmlns="http://www.dmg.org/PMML-4_4" xmlns:data="http://jpmml.org/jpmml-model/InlineTable" version="4.3">
	<Header>
		<Application name="JPMML-SkLearn" version="1.6.1"/>
		<Timestamp>2020-06-24T12:02:21Z</Timestamp>
	</Header>
	<DataDictionary>
		<DataField name="approval" optype="categorical" dataType="string">
			<Value value="false"/>
			<Value value="true"/>
		</DataField>
		<DataField name="category" optype="continuous" dataType="double"/>
		<DataField name="urgency" optype="continuous" dataType="double"/>
		<DataField name="targetPrice" optype="continuous" dataType="double"/>
		<DataField name="price" optype="continuous" dataType="double"/>
	</DataDictionary>
	<RegressionModel functionName="classification" normalizationMethod="logit" modelName="OrderApprovalRegression">
		<MiningSchema>
			<MiningField name="approval" usageType="target"/>
			<MiningField name="category"/>
			<MiningField name="urgency"/>
			<MiningField name="targetPrice"/>
			<MiningField name="price"/>
		</MiningSchema>
		<Output>
			<OutputField name="probability(false)" optype="continuous" dataType="double" feature="probability" value="false"/>
			<OutputField name="probability(true)" optype="continuous" dataType="double" feature="probability" value="true"/>
		</Output>
		<RegressionTable intercept="-4.497325725781028" targetCategory="true">
			<NumericPredictor name="category" coefficient="3.712049030297353"/>
			<NumericPredictor name="urgency" coefficient="2.5131562496421993"/>
			<NumericPredictor name="targetPrice" coefficient="0.04984722281353739"/>
			<NumericPredictor name="price" coefficient="-0.043453276235941016"/>
		</RegressionTable>
		<RegressionTable intercept="0.0" targetCategory="false"/>
	</RegressionModel>
</PMML>
