<?xml version="1.0" encoding="UTF-8" standalone="yes"?>
<!--
  Licensed to the Apache Software Foundation (ASF) under one
  or more contributor license agreements.  See the NOTICE file
  distributed with this work for additional information
  regarding copyright ownership.  The ASF licenses this file
  to you under the Apache License, Version 2.0 (the
  "License"); you may not use this file except in compliance
  with the License.  You may obtain a copy of the License at

    http://www.apache.org/licenses/LICENSE-2.0

  Unless required by applicable law or agreed to in writing,
  software distributed under the License is distributed on an
  "AS IS" BASIS, WITHOUT WARRANTIES OR CONDITIONS OF ANY
  KIND, either express or implied.  See the License for the
  specific language governing permissions and limitations
  under the License.
  -->

<PMML xmlns="http://www.dmg.org/PMML-4_4" version="4.4">
  <Header>
    <Application name="JPMML-SkLearn" version="1.6.1"/>
    <Timestamp>2020-06-14T13:10:31Z</Timestamp>
  </Header>
  <DataDictionary>
    <DataField name="class" optype="categorical" dataType="string">
      <Value value="Authentic"/>
      <Value value="Counterfeit"/>
    </DataField>
    <DataField name="variance" optype="continuous" dataType="double"/>
    <DataField name="skewness" optype="continuous" dataType="double"/>
    <DataField name="curtosis" optype="continuous" dataType="double"/>
    <DataField name="entropy" optype="continuous" dataType="double"/>
  </DataDictionary>
  <RegressionModel functionName="classification" normalizationMethod="logit" modelName="LogisticRegression">
    <MiningSchema>
      <MiningField name="class" usageType="target"/>
      <MiningField name="variance"/>
      <MiningField name="skewness"/>
      <MiningField name="curtosis"/>
      <MiningField name="entropy"/>
    </MiningSchema>
    <Output>
      <OutputField name="probability(Authentic)" optype="continuous" dataType="double" feature="probability" value="Authentic"/>
      <OutputField name="probability(Counterfeit)" optype="continuous" dataType="double" feature="probability" value="Counterfeit"/>
    </Output>
    <RegressionTable intercept="3.460264122656936" targetCategory="Counterfeit">
      <NumericPredictor name="variance" coefficient="-2.9831300080950225"/>
      <NumericPredictor name="skewness" coefficient="-1.7026628143884872"/>
      <NumericPredictor name="curtosis" coefficient="-2.1131094277477027"/>
      <NumericPredictor name="entropy" coefficient="-0.09574353592868858"/>
    </RegressionTable>
    <RegressionTable intercept="0.0" targetCategory="Authentic"/>
  </RegressionModel>
</PMML>