<?xml version="1.0" encoding="UTF-8" standalone="yes"?>
<PMML xmlns="http://www.dmg.org/PMML-4_4" xmlns:data="http://jpmml.org/jpmml-model/InlineTable" version="4.3">
  <Header>
    <Application name="JPMML-SkLearn" version="1.6.4"/>
    <Timestamp>2020-08-17T08:08:49Z</Timestamp>
  </Header>
  <DataDictionary>
    <DataField name="APPROVED" optype="categorical" dataType="double"/>
    <DataField name="FLAG_OWN_CAR" optype="continuous" dataType="double"/>
    <DataField name="FLAG_OWN_REALTY" optype="continuous" dataType="double"/>
    <DataField name="FLAG_WORK_PHONE" optype="continuous" dataType="double"/>
    <DataField name="CNT_CHILDREN" optype="continuous" dataType="double"/>
    <DataField name="AMT_INCOME_TOTAL" optype="continuous" dataType="double"/>
    <DataField name="AGE" optype="continuous" dataType="double"/>
    <DataField name="DAYS_EMPLOYED" optype="continuous" dataType="double"/>
  </DataDictionary>
  <TransformationDictionary/>
  <MiningModel functionName="classification" modelName="MiningModelMixedProbabilities">
    <MiningSchema>
      <MiningField name="APPROVED" usageType="target"/>
      <MiningField name="AMT_INCOME_TOTAL"/>
      <MiningField name="CNT_CHILDREN"/>
      <MiningField name="DAYS_EMPLOYED"/>
      <MiningField name="AGE"/>
      <MiningField name="FLAG_OWN_CAR"/>
      <MiningField name="FLAG_OWN_REALTY"/>
      <MiningField name="FLAG_WORK_PHONE"/>
    </MiningSchema>
    <Output>
      <OutputField name="probability(0)" optype="continuous" dataType="double" feature="probability" value="0"/>
      <OutputField name="probability(1)" optype="continuous" dataType="double" feature="probability" value="1"/>
    </Output>
    <Segmentation multipleModelMethod="average">
      <Segment id="1">
        <True/>
        <TreeModel functionName="classification" missingValueStrategy="nullPrediction">
          <MiningSchema>
            <MiningField name="FLAG_OWN_CAR"/>
            <MiningField name="FLAG_OWN_REALTY"/>
            <MiningField name="FLAG_WORK_PHONE"/>
            <MiningField name="AMT_INCOME_TOTAL"/>
            <MiningField name="CNT_CHILDREN"/>
            <MiningField name="DAYS_EMPLOYED"/>
            <MiningField name="AGE"/>
          </MiningSchema>
          <Node>
            <True/>
            <Node score="1" recordCount="2.0">
              <SimplePredicate field="FLAG_OWN_CAR" operator="lessOrEqual" value="0.5"/>
              <ScoreDistribution value="0" recordCount="0.0"/>
              <ScoreDistribution value="1" recordCount="2.0"/>
            </Node>
            <Node score="0" recordCount="54.0">
              <SimplePredicate field="FLAG_OWN_CAR" operator="greaterThan" value="0.5"/>
              <ScoreDistribution value="0" recordCount="42.0"/>
              <ScoreDistribution value="1" recordCount="12.0"/>
            </Node>
          </Node>
        </TreeModel>
      </Segment>
      <Segment id="2">
        <True/>
        <TreeModel functionName="classification" missingValueStrategy="nullPrediction">
          <MiningSchema>
            <MiningField name="FLAG_OWN_CAR"/>
            <MiningField name="FLAG_OWN_REALTY"/>
            <MiningField name="FLAG_WORK_PHONE"/>
            <MiningField name="AMT_INCOME_TOTAL"/>
            <MiningField name="CNT_CHILDREN"/>
            <MiningField name="DAYS_EMPLOYED"/>
            <MiningField name="AGE"/>
          </MiningSchema>
          <Node>
            <True/>
            <Node score="0" recordCount="42.0">
              <SimplePredicate field="FLAG_WORK_PHONE" operator="lessOrEqual" value="0.5"/>
              <ScoreDistribution value="0" recordCount="30.0"/>
              <ScoreDistribution value="1" recordCount="12.0"/>
            </Node>
            <Node score="1" recordCount="42.0">
              <SimplePredicate field="FLAG_WORK_PHONE" operator="greaterThan" value="0.5"/>
              <ScoreDistribution value="1" recordCount="30.0"/>
              <ScoreDistribution value="0" recordCount="12.0"/>
            </Node>
          </Node>
        </TreeModel>
      </Segment>
      <Segment id="3">
        <True/>
        <RegressionModel modelName="RegressionSegment" functionName="classification" >
          <MiningSchema>
            <MiningField name="FLAG_OWN_CAR"/>
            <MiningField name="FLAG_OWN_REALTY"/>
            <MiningField name="FLAG_WORK_PHONE"/>
            <MiningField name="AMT_INCOME_TOTAL"/>
            <MiningField name="CNT_CHILDREN"/>
            <MiningField name="DAYS_EMPLOYED"/>
            <MiningField name="AGE"/>
          </MiningSchema>
          <Output>
            <OutputField name="probreg(0)" optype="continuous" dataType="double" feature="probability" value="0"/>
            <OutputField name="probreg(1)" optype="continuous" dataType="double" feature="probability" value="1"/>
          </Output>
          <RegressionTable intercept="0.3" targetCategory="0" >
            <NumericPredictor coefficient="0.02" exponent="1" name="AMT_INCOME_TOTAL"/>
            <NumericPredictor coefficient="-0.1" exponent="1" name="DAYS_EMPLOYED"/>
          </RegressionTable>
          <RegressionTable intercept="0.7" targetCategory="1"/>
        </RegressionModel>
      </Segment>
    </Segmentation>
  </MiningModel>
</PMML>